<<<<<<< HEAD
-5.048678517341613770e-01 -6.064646244049072266e-01 -5.002924799919128418e-01 3.627708256244659424e-01 -1.773062348365783691e-01 2.060538530349731445e-01
-1.971808075904846191e-01 -2.016505450010299683e-01 4.900460839271545410e-01 1.995899230241775513e-01 1.538311094045639038e-01 -2.130406945943832397e-01
4.920655116438865662e-02 -4.214232265949249268e-01 -3.894186317920684814e-01 -8.467882871627807617e-02 5.252487659454345703e-01 -2.141951024532318115e-01
-1.582435071468353271e-01 -2.338349372148513794e-01 6.717221736907958984e-01 1.295657604932785034e-01 3.712151646614074707e-01 1.238330304622650146e-01
3.211798071861267090e-01 -2.830666303634643555e-01 -3.760306835174560547e-01 2.340722978115081787e-01 -6.384283900260925293e-01 -3.776563704013824463e-01
4.760179221630096436e-01 -3.715648651123046875e-01 5.811086893081665039e-01 7.698224782943725586e-01 9.661864489316940308e-02 1.178318113088607788e-01
-2.811349928379058838e-01 -5.995292067527770996e-01 -3.094927668571472168e-01 -2.238525599241256714e-01 -3.973316252231597900e-01 4.864862859249114990e-01
5.096358656883239746e-01 1.944697648286819458e-01 -1.351074278354644775e-01 4.088706076145172119e-01 -1.716845035552978516e-01 -4.701314568519592285e-01
-2.067129500210285187e-02 -4.101718366146087646e-01 -7.606415543705224991e-03 6.178944706916809082e-01 5.285181403160095215e-01 -6.862927228212356567e-02
4.357838630676269531e-01 1.438139528036117554e-01 -2.551645934581756592e-01 4.456180632114410400e-01 9.118271619081497192e-02 1.733022630214691162e-01
=======
-7.382572293281555176e-01 -6.939473152160644531e-01 -4.923167526721954346e-01 4.466310739517211914e-01 -1.771157830953598022e-01 5.342538952827453613e-01
-2.679440975189208984e-01 1.684317588806152344e-01 7.777259945869445801e-01 1.772441715002059937e-01 2.080575376749038696e-01 -4.316488802433013916e-01
>>>>>>> 4d6bb92000e9447f3253c6386fe563f527241e35
